<?xml version="1.0"?>
<opencv_storage>
<stage1>
  <maxWeakCount>51</maxWeakCount>
  <stageThreshold>-7.1188801527023315e-01</stageThreshold>
  <weakClassifiers>
    <_>
      <internalNodes>
        0 -1 61283 -2.4688837584108114e-04</internalNodes>
      <leafValues>
        5.2584671974182129e-01 1.4749262481927872e-02</leafValues></_>
    <_>
      <internalNodes>
        0 -1 60796 -5.4815947078168392e-03</internalNodes>
      <leafValues>
        -7.3577779531478882e-01 8.8915519416332245e-02</leafValues></_>
    <_>
      <internalNodes>
        0 -1 56693 9.2292698100209236e-03</internalNodes>
      <leafValues>
        5.0764206796884537e-02 -7.0393288135528564e-01</leafValues></_>
    <_>
      <internalNodes>
        0 -1 60832 4.7641817945986986e-04</internalNodes>
      <leafValues>
        -1.9654558598995209e-01 1.9399614632129669e-01</leafValues></_>
    <_>
      <internalNodes>
        0 -1 56652 -8.5536548867821693e-03</internalNodes>
      <leafValues>
        -6.4243471622467041e-01 4.8482924699783325e-02</leafValues></_>
    <_>
      <internalNodes>
        0 -1 52646 -4.2148865759372711e-03</internalNodes>
      <leafValues>
        -7.8514420986175537e-01 3.4109070897102356e-02</leafValues></_>
    <_>
      <internalNodes>
        0 -1 50439 -1.3057230040431023e-02</internalNodes>
      <leafValues>
        3.5896620154380798e-01 -9.8437346518039703e-02</leafValues></_>
    <_>
      <internalNodes>
        0 -1 51847 1.2220778502523899e-02</internalNodes>
      <leafValues>
        -1.3053970038890839e-01 3.8334253430366516e-01</leafValues></_>
    <_>
      <internalNodes>
        0 -1 57623 -4.5212921686470509e-03</internalNodes>
      <leafValues>
        -6.3603574037551880e-01 4.9643184989690781e-02</leafValues></_>
    <_>
      <internalNodes>
        0 -1 47922 -4.8509594053030014e-03</internalNodes>
      <leafValues>
        -7.8116655349731445e-01 7.8116664662957191e-03</leafValues></_>
    <_>
      <internalNodes>
        0 -1 53444 -4.8592453822493553e-03</internalNodes>
      <leafValues>
        -7.1881735324859619e-01 2.9588706791400909e-02</leafValues></_>
    <_>
      <internalNodes>
        0 -1 56355 -9.8207325208932161e-04</internalNodes>
      <leafValues>
        3.0296927690505981e-01 -9.1292887926101685e-02</leafValues></_>
    <_>
      <internalNodes>
        0 -1 59720 -7.1698022074997425e-03</internalNodes>
      <leafValues>
        2.6283881068229675e-01 -1.1024485528469086e-01</leafValues></_>
    <_>
      <internalNodes>
        0 -1 49471 3.8188784383237362e-03</internalNodes>
      <leafValues>
        -8.1131890416145325e-02 2.8877007961273193e-01</leafValues></_>
    <_>
      <internalNodes>
        0 -1 60790 3.6899240221828222e-03</internalNodes>
      <leafValues>
        2.6353392750024796e-02 -6.1188983917236328e-01</leafValues></_>
    <_>
      <internalNodes>
        0 -1 63660 5.1655750721693039e-03</internalNodes>
      <leafValues>
        -9.0180791914463043e-02 2.7534645795822144e-01</leafValues></_>
    <_>
      <internalNodes>
        0 -1 62272 -4.3660003575496376e-04</internalNodes>
      <leafValues>
        1.7497235536575317e-01 -1.2804955244064331e-01</leafValues></_>
    <_>
      <internalNodes>
        0 -1 51691 2.2902551572769880e-03</internalNodes>
      <leafValues>
        -1.1425759643316269e-01 1.9748291373252869e-01</leafValues></_>
    <_>
      <internalNodes>
        0 -1 56994 -5.8811344206333160e-03</internalNodes>
      <leafValues>
        -7.1630096435546875e-01 3.3258434385061264e-02</leafValues></_>
    <_>
      <internalNodes>
        0 -1 11788 -7.8435316681861877e-03</internalNodes>
      <leafValues>
        2.8563550114631653e-01 -8.6937084794044495e-02</leafValues></_>
    <_>
      <internalNodes>
        0 -1 17287 6.2639713287353516e-03</internalNodes>
      <leafValues>
        -7.6925918459892273e-02 3.1505751609802246e-01</leafValues></_>
    <_>
      <internalNodes>
        0 -1 47597 3.0879606492817402e-03</internalNodes>
      <leafValues>
        5.7881087064743042e-02 -4.5983725786209106e-01</leafValues></_>
    <_>
      <internalNodes>
        0 -1 57593 -5.2526528015732765e-03</internalNodes>
      <leafValues>
        -8.4723412990570068e-01 2.6378128677606583e-02</leafValues></_>
    <_>
      <internalNodes>
        0 -1 64729 -2.4425692390650511e-04</internalNodes>
      <leafValues>
        1.5355378389358521e-01 -1.5264171361923218e-01</leafValues></_>
    <_>
      <internalNodes>
        0 -1 61250 -4.8577077686786652e-03</internalNodes>
      <leafValues>
        -7.0614951848983765e-01 2.4646677076816559e-02</leafValues></_>
    <_>
      <internalNodes>
        0 -1 52689 -1.3426757650449872e-03</internalNodes>
      <leafValues>
        2.5631454586982727e-01 -1.0730157792568207e-01</leafValues></_>
    <_>
      <internalNodes>
        0 -1 57154 -2.2968836128711700e-04</internalNodes>
      <leafValues>
        1.9651421904563904e-01 -1.7436334490776062e-01</leafValues></_>
    <_>
      <internalNodes>
        0 -1 57390 -2.1425020531751215e-04</internalNodes>
      <leafValues>
        1.7756325006484985e-01 -1.5735359489917755e-01</leafValues></_>
    <_>
      <internalNodes>
        0 -1 56914 2.6355587760917842e-04</internalNodes>
      <leafValues>
        -1.5659482777118683e-01 1.8114992976188660e-01</leafValues></_>
    <_>
      <internalNodes>
        0 -1 57004 -2.5101326406002045e-02</internalNodes>
      <leafValues>
        -5.9267264604568481e-01 4.5373592525720596e-02</leafValues></_>
    <_>
      <internalNodes>
        0 -1 77832 -4.9569904804229736e-02</internalNodes>
      <leafValues>
        5.2004706859588623e-01 -5.0709206610918045e-02</leafValues></_>
    <_>
      <internalNodes>
        0 -1 47250 -8.1417546607553959e-04</internalNodes>
      <leafValues>
        2.2745086252689362e-01 -1.0334579646587372e-01</leafValues></_>
    <_>
      <internalNodes>
        0 -1 37115 -1.2081725522875786e-02</internalNodes>
      <leafValues>
        -6.5853071212768555e-01 4.2067583650350571e-02</leafValues></_>
    <_>
      <internalNodes>
        0 -1 66051 6.7695544566959143e-04</internalNodes>
      <leafValues>
        -1.4545796811580658e-01 1.6471488773822784e-01</leafValues></_>
    <_>
      <internalNodes>
        0 -1 43549 -1.3385806232690811e-03</internalNodes>
      <leafValues>
        1.9463984668254852e-01 -1.3311824202537537e-01</leafValues></_>
    <_>
      <internalNodes>
        0 -1 48582 2.8681011870503426e-02</internalNodes>
      <leafValues>
        3.8492124527692795e-02 -6.1057949066162109e-01</leafValues></_>
    <_>
      <internalNodes>
        0 -1 46598 1.2006409466266632e-02</internalNodes>
      <leafValues>
        -8.4405593574047089e-02 3.3877581357955933e-01</leafValues></_>
    <_>
      <internalNodes>
        0 -1 21680 -3.9145480841398239e-03</internalNodes>
      <leafValues>
        -7.5026828050613403e-01 4.1531573981046677e-02</leafValues></_>
    <_>
      <internalNodes>
        0 -1 58434 -4.1164652793668211e-04</internalNodes>
      <leafValues>
        1.7753489315509796e-01 -1.2949015200138092e-01</leafValues></_>
    <_>
      <internalNodes>
        0 -1 56645 -3.1384122557938099e-03</internalNodes>
      <leafValues>
        -5.9417217969894409e-01 3.4297257661819458e-02</leafValues></_>
    <_>
      <internalNodes>
        0 -1 26163 -4.0322444401681423e-03</internalNodes>
      <leafValues>
        2.5234177708625793e-01 -9.9740788340568542e-02</leafValues></_>
    <_>
      <internalNodes>
        0 -1 18878 4.0188971906900406e-03</internalNodes>
      <leafValues>
        -1.1442506313323975e-01 1.9757333397865295e-01</leafValues></_>
    <_>
      <internalNodes>
        0 -1 3429 3.5423807799816132e-02</internalNodes>
      <leafValues>
        -3.0638262629508972e-02 7.1734577417373657e-01</leafValues></_>
    <_>
      <internalNodes>
        0 -1 45886 9.3131408095359802e-02</internalNodes>
      <leafValues>
        -4.0846407413482666e-02 4.3946087360382080e-01</leafValues></_>
    <_>
      <internalNodes>
        0 -1 57391 -6.2934923917055130e-03</internalNodes>
      <leafValues>
        -9.3133211135864258e-01 2.3332225158810616e-02</leafValues></_>
    <_>
      <internalNodes>
        0 -1 62566 -4.1464406996965408e-02</internalNodes>
      <leafValues>
        3.8215637207031250e-01 -6.6910520195960999e-02</leafValues></_>
    <_>
      <internalNodes>
        0 -1 65089 1.4027231372892857e-03</internalNodes>
      <leafValues>
        -9.2173755168914795e-02 2.4199225008487701e-01</leafValues></_>
    <_>
      <internalNodes>
        0 -1 61288 -3.0081064905971289e-03</internalNodes>
      <leafValues>
        2.3720069229602814e-01 -1.1162464320659637e-01</leafValues></_>
    <_>
      <internalNodes>
        0 -1 60538 5.9620691463351250e-03</internalNodes>
      <leafValues>
        6.3100829720497131e-02 -3.8832253217697144e-01</leafValues></_>
    <_>
      <internalNodes>
        0 -1 56406 -6.9921032991260290e-04</internalNodes>
      <leafValues>
        1.7189487814903259e-01 -1.3514915108680725e-01</leafValues></_>
    <_>
      <internalNodes>
        0 -1 26527 1.0730195790529251e-03</internalNodes>
      <leafValues>
        -1.1617417633533478e-01 1.8987601995468140e-01</leafValues></_></weakClassifiers></stage1>
</opencv_storage>
