<?xml version="1.0"?>
<opencv_storage>
<stage1>
  <maxWeakCount>43</maxWeakCount>
  <stageThreshold>-6.8306273221969604e-01</stageThreshold>
  <weakClassifiers>
    <_>
      <internalNodes>
        0 -1 70447 -1.8329363083466887e-03</internalNodes>
      <leafValues>
        5.8375632762908936e-01 1.3833992183208466e-01</leafValues></_>
    <_>
      <internalNodes>
        0 -1 64542 -7.7849989756941795e-03</internalNodes>
      <leafValues>
        -5.6780695915222168e-01 1.0924326628446579e-01</leafValues></_>
    <_>
      <internalNodes>
        0 -1 54599 2.7094846591353416e-03</internalNodes>
      <leafValues>
        -1.5265494585037231e-01 3.0201160907745361e-01</leafValues></_>
    <_>
      <internalNodes>
        0 -1 61249 -5.5629839189350605e-03</internalNodes>
      <leafValues>
        -7.7366566658020020e-01 7.6061752624809742e-03</leafValues></_>
    <_>
      <internalNodes>
        0 -1 67631 7.0196972228586674e-04</internalNodes>
      <leafValues>
        -1.4538675546646118e-01 2.9136362671852112e-01</leafValues></_>
    <_>
      <internalNodes>
        0 -1 58031 -6.4606359228491783e-04</internalNodes>
      <leafValues>
        2.1516133844852448e-01 -2.1214288473129272e-01</leafValues></_>
    <_>
      <internalNodes>
        0 -1 33988 -5.1635457202792168e-03</internalNodes>
      <leafValues>
        3.6759448051452637e-01 -1.2125457823276520e-01</leafValues></_>
    <_>
      <internalNodes>
        0 -1 63096 -2.2633962798863649e-03</internalNodes>
      <leafValues>
        3.4893366694450378e-01 -1.0570111870765686e-01</leafValues></_>
    <_>
      <internalNodes>
        0 -1 52732 2.3692692629992962e-03</internalNodes>
      <leafValues>
        -1.3896542787551880e-01 2.6708117127418518e-01</leafValues></_>
    <_>
      <internalNodes>
        0 -1 42903 -7.4745458550751209e-04</internalNodes>
      <leafValues>
        2.5423175096511841e-01 -1.4035576581954956e-01</leafValues></_>
    <_>
      <internalNodes>
        0 -1 6103 -7.3777474462985992e-03</internalNodes>
      <leafValues>
        3.0561032891273499e-01 -1.0304082930088043e-01</leafValues></_>
    <_>
      <internalNodes>
        0 -1 42148 7.7083194628357887e-03</internalNodes>
      <leafValues>
        -1.0009353607892990e-01 3.1196060776710510e-01</leafValues></_>
    <_>
      <internalNodes>
        0 -1 73796 -2.7961023151874542e-02</internalNodes>
      <leafValues>
        4.3180775642395020e-01 -6.7614555358886719e-02</leafValues></_>
    <_>
      <internalNodes>
        0 -1 70213 3.5417161881923676e-02</internalNodes>
      <leafValues>
        -8.6014814674854279e-02 3.6950007081031799e-01</leafValues></_>
    <_>
      <internalNodes>
        0 -1 67808 -3.9142756722867489e-03</internalNodes>
      <leafValues>
        -6.5222907066345215e-01 5.0542689859867096e-02</leafValues></_>
    <_>
      <internalNodes>
        0 -1 18363 1.4013377949595451e-03</internalNodes>
      <leafValues>
        -1.1697676032781601e-01 2.7502942085266113e-01</leafValues></_>
    <_>
      <internalNodes>
        0 -1 39618 -1.0844892822206020e-03</internalNodes>
      <leafValues>
        3.4022590517997742e-01 -1.0382637381553650e-01</leafValues></_>
    <_>
      <internalNodes>
        0 -1 39501 -5.4344243835657835e-04</internalNodes>
      <leafValues>
        2.1183334290981293e-01 -1.5893852710723877e-01</leafValues></_>
    <_>
      <internalNodes>
        0 -1 74975 4.5718830078840256e-03</internalNodes>
      <leafValues>
        -9.4787932932376862e-02 3.1263563036918640e-01</leafValues></_>
    <_>
      <internalNodes>
        0 -1 71128 1.3348226202651858e-03</internalNodes>
      <leafValues>
        -1.3098731637001038e-01 2.5052076578140259e-01</leafValues></_>
    <_>
      <internalNodes>
        0 -1 61440 -3.1829266808927059e-03</internalNodes>
      <leafValues>
        -6.6580802202224731e-01 5.4664507508277893e-02</leafValues></_>
    <_>
      <internalNodes>
        0 -1 58393 3.4057013690471649e-03</internalNodes>
      <leafValues>
        -1.1955342441797256e-01 2.9614439606666565e-01</leafValues></_>
    <_>
      <internalNodes>
        0 -1 57396 -7.5887148268520832e-03</internalNodes>
      <leafValues>
        -5.6728696823120117e-01 5.6661266833543777e-02</leafValues></_>
    <_>
      <internalNodes>
        0 -1 78141 -1.8456187099218369e-03</internalNodes>
      <leafValues>
        2.7185380458831787e-01 -1.2576009333133698e-01</leafValues></_>
    <_>
      <internalNodes>
        0 -1 72458 -4.5479677617549896e-02</internalNodes>
      <leafValues>
        4.6942138671875000e-01 -7.3670968413352966e-02</leafValues></_>
    <_>
      <internalNodes>
        0 -1 67677 -3.9304750971496105e-03</internalNodes>
      <leafValues>
        2.1307633817195892e-01 -1.5985058248043060e-01</leafValues></_>
    <_>
      <internalNodes>
        0 -1 67255 -5.6661322014406323e-04</internalNodes>
      <leafValues>
        2.1411722898483276e-01 -1.5979158878326416e-01</leafValues></_>
    <_>
      <internalNodes>
        0 -1 53871 1.3464031508192420e-03</internalNodes>
      <leafValues>
        -1.1806135624647141e-01 2.5972992181777954e-01</leafValues></_>
    <_>
      <internalNodes>
        0 -1 36485 -4.6474835835397243e-03</internalNodes>
      <leafValues>
        2.2086904942989349e-01 -1.5020038187503815e-01</leafValues></_>
    <_>
      <internalNodes>
        0 -1 65204 -4.5678047463297844e-03</internalNodes>
      <leafValues>
        -6.9834846258163452e-01 4.7199036926031113e-02</leafValues></_>
    <_>
      <internalNodes>
        0 -1 19222 -9.4504223670810461e-04</internalNodes>
      <leafValues>
        2.4321523308753967e-01 -1.4868253469467163e-01</leafValues></_>
    <_>
      <internalNodes>
        0 -1 72939 -1.7711828695610166e-03</internalNodes>
      <leafValues>
        -3.9718279242515564e-01 8.8091939687728882e-02</leafValues></_>
    <_>
      <internalNodes>
        0 -1 52938 4.3250164017081261e-03</internalNodes>
      <leafValues>
        -1.0863521695137024e-01 3.2739803194999695e-01</leafValues></_>
    <_>
      <internalNodes>
        0 -1 68013 7.8537352383136749e-03</internalNodes>
      <leafValues>
        -1.3506498932838440e-01 2.5264477729797363e-01</leafValues></_>
    <_>
      <internalNodes>
        0 -1 64730 -3.4215529449284077e-03</internalNodes>
      <leafValues>
        -5.6073272228240967e-01 5.7046838104724884e-02</leafValues></_>
    <_>
      <internalNodes>
        0 -1 57691 4.0033501572906971e-03</internalNodes>
      <leafValues>
        -1.1266846954822540e-01 2.7767512202262878e-01</leafValues></_>
    <_>
      <internalNodes>
        0 -1 64933 -3.2533078920096159e-03</internalNodes>
      <leafValues>
        3.0585813522338867e-01 -1.0050509870052338e-01</leafValues></_>
    <_>
      <internalNodes>
        0 -1 65710 -3.1525194644927979e-03</internalNodes>
      <leafValues>
        -4.2842355370521545e-01 7.4862986803054810e-02</leafValues></_>
    <_>
      <internalNodes>
        0 -1 61029 7.6782973483204842e-03</internalNodes>
      <leafValues>
        5.9894170612096786e-02 -5.0650149583816528e-01</leafValues></_>
    <_>
      <internalNodes>
        0 -1 48814 -9.3634547665715218e-03</internalNodes>
      <leafValues>
        -3.6256626248359680e-01 8.9229896664619446e-02</leafValues></_>
    <_>
      <internalNodes>
        0 -1 18803 3.0447277240455151e-03</internalNodes>
      <leafValues>
        -1.2782004475593567e-01 2.3646230995655060e-01</leafValues></_>
    <_>
      <internalNodes>
        0 -1 22515 9.8547458648681641e-02</internalNodes>
      <leafValues>
        -4.5910302549600601e-02 6.2482404708862305e-01</leafValues></_>
    <_>
      <internalNodes>
        0 -1 43689 3.9987727999687195e-02</internalNodes>
      <leafValues>
        8.7070815265178680e-02 -4.6562236547470093e-01</leafValues></_></weakClassifiers></stage1>
</opencv_storage>
