<?xml version="1.0"?>
<opencv_storage>
<stage0>
  <maxWeakCount>22</maxWeakCount>
  <stageThreshold>-1.0966274738311768e+00</stageThreshold>
  <weakClassifiers>
    <_>
      <internalNodes>
        0 -1 70441 -2.9276459827087820e-04</internalNodes>
      <leafValues>
        6.2570464611053467e-01 4.9288060516119003e-02</leafValues></_>
    <_>
      <internalNodes>
        0 -1 11737 -1.1861699167639017e-03</internalNodes>
      <leafValues>
        5.3272801637649536e-01 -1.5919817984104156e-01</leafValues></_>
    <_>
      <internalNodes>
        0 -1 57815 2.0672953687608242e-03</internalNodes>
      <leafValues>
        -1.5531541407108307e-01 4.5026117563247681e-01</leafValues></_>
    <_>
      <internalNodes>
        0 -1 2143 -3.3298612106591463e-03</internalNodes>
      <leafValues>
        3.7651479244232178e-01 -2.3141410946846008e-01</leafValues></_>
    <_>
      <internalNodes>
        0 -1 57626 1.1498791864141822e-03</internalNodes>
      <leafValues>
        -2.0303520560264587e-01 3.8487207889556885e-01</leafValues></_>
    <_>
      <internalNodes>
        0 -1 58562 1.9530489807948470e-03</internalNodes>
      <leafValues>
        -1.3784708082675934e-01 4.8175615072250366e-01</leafValues></_>
    <_>
      <internalNodes>
        0 -1 50236 -5.0088297575712204e-03</internalNodes>
      <leafValues>
        3.2939642667770386e-01 -1.9956374168395996e-01</leafValues></_>
    <_>
      <internalNodes>
        0 -1 47693 -4.0038339793682098e-03</internalNodes>
      <leafValues>
        3.6782392859458923e-01 -1.7449624836444855e-01</leafValues></_>
    <_>
      <internalNodes>
        0 -1 52973 2.5250548496842384e-03</internalNodes>
      <leafValues>
        -1.4416624605655670e-01 4.3414390087127686e-01</leafValues></_>
    <_>
      <internalNodes>
        0 -1 57155 -6.1319593805819750e-04</internalNodes>
      <leafValues>
        3.2409468293190002e-01 -1.9480296969413757e-01</leafValues></_>
    <_>
      <internalNodes>
        0 -1 12599 5.3432048298418522e-04</internalNodes>
      <leafValues>
        -1.3971298933029175e-01 3.7759175896644592e-01</leafValues></_>
    <_>
      <internalNodes>
        0 -1 64733 1.0067299008369446e-03</internalNodes>
      <leafValues>
        -2.0050705969333649e-01 3.0104732513427734e-01</leafValues></_>
    <_>
      <internalNodes>
        0 -1 6389 -5.2862794836983085e-04</internalNodes>
      <leafValues>
        3.3227548003196716e-01 -1.8817508220672607e-01</leafValues></_>
    <_>
      <internalNodes>
        0 -1 71032 2.4228750262409449e-03</internalNodes>
      <leafValues>
        -1.6486726701259613e-01 3.4307509660720825e-01</leafValues></_>
    <_>
      <internalNodes>
        0 -1 75866 -8.0025597708299756e-04</internalNodes>
      <leafValues>
        3.9049077033996582e-01 -1.4447292685508728e-01</leafValues></_>
    <_>
      <internalNodes>
        0 -1 67356 1.5668263658881187e-02</internalNodes>
      <leafValues>
        -1.3772821426391602e-01 3.9751061797142029e-01</leafValues></_>
    <_>
      <internalNodes>
        0 -1 33429 -6.0593435773625970e-04</internalNodes>
      <leafValues>
        3.1886363029479980e-01 -1.8803073465824127e-01</leafValues></_>
    <_>
      <internalNodes>
        0 -1 45026 -7.6570344390347600e-04</internalNodes>
      <leafValues>
        3.8638526201248169e-01 -1.5147671103477478e-01</leafValues></_>
    <_>
      <internalNodes>
        0 -1 61509 -5.1092151552438736e-03</internalNodes>
      <leafValues>
        5.6039917469024658e-01 -7.7985458076000214e-02</leafValues></_>
    <_>
      <internalNodes>
        0 -1 61979 1.4037156943231821e-03</internalNodes>
      <leafValues>
        -1.8208400905132294e-01 3.0650505423545837e-01</leafValues></_>
    <_>
      <internalNodes>
        0 -1 27675 -2.1416407544165850e-03</internalNodes>
      <leafValues>
        3.7526914477348328e-01 -1.1952476203441620e-01</leafValues></_>
    <_>
      <internalNodes>
        0 -1 11252 -1.4140574494376779e-03</internalNodes>
      <leafValues>
        3.8082203269004822e-01 -1.4084130525588989e-01</leafValues></_></weakClassifiers></stage0>
</opencv_storage>
