<?xml version="1.0"?>
<opencv_storage>
<stage3>
  <maxWeakCount>49</maxWeakCount>
  <stageThreshold>-6.1326724290847778e-01</stageThreshold>
  <weakClassifiers>
    <_>
      <internalNodes>
        0 -1 70447 -1.5716048656031489e-03</internalNodes>
      <leafValues>
        5.2447551488876343e-01 1.5923567116260529e-01</leafValues></_>
    <_>
      <internalNodes>
        0 -1 58978 2.9740394893451594e-05</internalNodes>
      <leafValues>
        -1.4892388880252838e-01 1.9141691923141479e-01</leafValues></_>
    <_>
      <internalNodes>
        0 -1 45133 1.0926059447228909e-02</internalNodes>
      <leafValues>
        -8.7010957300662994e-02 3.5509279370307922e-01</leafValues></_>
    <_>
      <internalNodes>
        0 -1 17861 2.7731820591725409e-04</internalNodes>
      <leafValues>
        -1.9179931282997131e-01 1.5227402746677399e-01</leafValues></_>
    <_>
      <internalNodes>
        0 -1 27660 -1.0614460334181786e-03</internalNodes>
      <leafValues>
        3.0339223146438599e-01 -1.0326679795980453e-01</leafValues></_>
    <_>
      <internalNodes>
        0 -1 33819 1.6835123533383012e-03</internalNodes>
      <leafValues>
        -1.0803369432687759e-01 3.0707183480262756e-01</leafValues></_>
    <_>
      <internalNodes>
        0 -1 69018 -2.7095749974250793e-03</internalNodes>
      <leafValues>
        2.1307826042175293e-01 -1.3428120315074921e-01</leafValues></_>
    <_>
      <internalNodes>
        0 -1 33962 4.6212598681449890e-03</internalNodes>
      <leafValues>
        -8.2679636776447296e-02 3.5556939244270325e-01</leafValues></_>
    <_>
      <internalNodes>
        0 -1 64730 4.1350014507770538e-03</internalNodes>
      <leafValues>
        6.8633854389190674e-02 -4.5157796144485474e-01</leafValues></_>
    <_>
      <internalNodes>
        0 -1 49818 -3.9355042390525341e-03</internalNodes>
      <leafValues>
        2.3933170735836029e-01 -1.1850608140230179e-01</leafValues></_>
    <_>
      <internalNodes>
        0 -1 54171 1.6964029520750046e-02</internalNodes>
      <leafValues>
        4.6791385859251022e-02 -6.0982048511505127e-01</leafValues></_>
    <_>
      <internalNodes>
        0 -1 43100 -1.4374410733580589e-02</internalNodes>
      <leafValues>
        -6.2726151943206787e-01 4.0629312396049500e-02</leafValues></_>
    <_>
      <internalNodes>
        0 -1 64764 -2.2219067905098200e-03</internalNodes>
      <leafValues>
        2.8704547882080078e-01 -1.0142350941896439e-01</leafValues></_>
    <_>
      <internalNodes>
        0 -1 60543 -1.3425935059785843e-02</internalNodes>
      <leafValues>
        -5.2463519573211670e-01 5.2444756031036377e-02</leafValues></_>
    <_>
      <internalNodes>
        0 -1 61293 -2.2204548120498657e-02</internalNodes>
      <leafValues>
        -7.4632453918457031e-01 3.4764211624860764e-02</leafValues></_>
    <_>
      <internalNodes>
        0 -1 74842 2.3249792866408825e-03</internalNodes>
      <leafValues>
        -1.1864764243364334e-01 2.5214928388595581e-01</leafValues></_>
    <_>
      <internalNodes>
        0 -1 70345 -2.0065328106284142e-02</internalNodes>
      <leafValues>
        3.7287294864654541e-01 -7.4188068509101868e-02</leafValues></_>
    <_>
      <internalNodes>
        0 -1 64900 1.7156184185296297e-03</internalNodes>
      <leafValues>
        -8.7922982871532440e-02 3.3793798089027405e-01</leafValues></_>
    <_>
      <internalNodes>
        0 -1 61320 3.4985884558409452e-03</internalNodes>
      <leafValues>
        -1.0607255995273590e-01 2.7235439419746399e-01</leafValues></_>
    <_>
      <internalNodes>
        0 -1 71099 8.5883112624287605e-03</internalNodes>
      <leafValues>
        4.8977956175804138e-02 -6.0247218608856201e-01</leafValues></_>
    <_>
      <internalNodes>
        0 -1 70600 3.1770430505275726e-03</internalNodes>
      <leafValues>
        -1.0155031830072403e-01 2.7052092552185059e-01</leafValues></_>
    <_>
      <internalNodes>
        0 -1 67958 -4.1070710867643356e-03</internalNodes>
      <leafValues>
        -5.2468860149383545e-01 5.7793375104665756e-02</leafValues></_>
    <_>
      <internalNodes>
        0 -1 62183 -7.3395343497395515e-04</internalNodes>
      <leafValues>
        2.1031413972377777e-01 -1.3031299412250519e-01</leafValues></_>
    <_>
      <internalNodes>
        0 -1 54390 8.8773369789123535e-03</internalNodes>
      <leafValues>
        -8.5351362824440002e-02 3.2856088876724243e-01</leafValues></_>
    <_>
      <internalNodes>
        0 -1 75563 -7.1130529046058655e-02</internalNodes>
      <leafValues>
        4.1795167326927185e-01 -6.1018522828817368e-02</leafValues></_>
    <_>
      <internalNodes>
        0 -1 62805 -3.0624361243098974e-03</internalNodes>
      <leafValues>
        2.0773991942405701e-01 -1.3048841059207916e-01</leafValues></_>
    <_>
      <internalNodes>
        0 -1 34050 -4.3386844918131828e-03</internalNodes>
      <leafValues>
        -5.1099830865859985e-01 5.6306403130292892e-02</leafValues></_>
    <_>
      <internalNodes>
        0 -1 74843 3.6519458517432213e-03</internalNodes>
      <leafValues>
        -1.0197475552558899e-01 2.8584235906600952e-01</leafValues></_>
    <_>
      <internalNodes>
        0 -1 65350 -4.6795647358521819e-04</internalNodes>
      <leafValues>
        1.8315938115119934e-01 -1.4885604381561279e-01</leafValues></_>
    <_>
      <internalNodes>
        0 -1 15539 -5.3537651896476746e-02</internalNodes>
      <leafValues>
        6.2680602073669434e-01 -3.9285253733396530e-02</leafValues></_>
    <_>
      <internalNodes>
        0 -1 17328 5.8424491435289383e-03</internalNodes>
      <leafValues>
        -1.3178277015686035e-01 2.7911123633384705e-01</leafValues></_>
    <_>
      <internalNodes>
        0 -1 61914 9.2181675136089325e-03</internalNodes>
      <leafValues>
        7.0553451776504517e-02 -3.9566060900688171e-01</leafValues></_>
    <_>
      <internalNodes>
        0 -1 22493 -7.9546812921762466e-03</internalNodes>
      <leafValues>
        3.0212321877479553e-01 -9.1497220098972321e-02</leafValues></_>
    <_>
      <internalNodes>
        0 -1 22234 3.4858413040637970e-02</internalNodes>
      <leafValues>
        -1.2226819992065430e-01 2.2549608349800110e-01</leafValues></_>
    <_>
      <internalNodes>
        0 -1 64659 3.4476790577173233e-02</internalNodes>
      <leafValues>
        4.5420788228511810e-02 -6.7266297340393066e-01</leafValues></_>
    <_>
      <internalNodes>
        0 -1 11259 -3.2531074248254299e-03</internalNodes>
      <leafValues>
        3.1166291236877441e-01 -8.8622510433197021e-02</leafValues></_>
    <_>
      <internalNodes>
        0 -1 76414 3.2071460736915469e-04</internalNodes>
      <leafValues>
        -1.3088847696781158e-01 2.0130386948585510e-01</leafValues></_>
    <_>
      <internalNodes>
        0 -1 53442 -1.3190791942179203e-03</internalNodes>
      <leafValues>
        2.6688951253890991e-01 -1.0202768445014954e-01</leafValues></_>
    <_>
      <internalNodes>
        0 -1 2146 3.5451255738735199e-02</internalNodes>
      <leafValues>
        -4.0606848895549774e-02 6.0277521610260010e-01</leafValues></_>
    <_>
      <internalNodes>
        0 -1 32500 -6.2205828726291656e-03</internalNodes>
      <leafValues>
        3.7181499600410461e-01 -8.0229498445987701e-02</leafValues></_>
    <_>
      <internalNodes>
        0 -1 56047 -2.7832179330289364e-03</internalNodes>
      <leafValues>
        -4.8601794242858887e-01 5.5920299142599106e-02</leafValues></_>
    <_>
      <internalNodes>
        0 -1 44657 -1.5574587741866708e-03</internalNodes>
      <leafValues>
        3.1734767556190491e-01 -7.7865988016128540e-02</leafValues></_>
    <_>
      <internalNodes>
        0 -1 67460 -1.2951692566275597e-02</internalNodes>
      <leafValues>
        -6.9333714246749878e-01 3.9582643657922745e-02</leafValues></_>
    <_>
      <internalNodes>
        0 -1 67450 -8.4185629384592175e-04</internalNodes>
      <leafValues>
        2.1514600515365601e-01 -1.3822218775749207e-01</leafValues></_>
    <_>
      <internalNodes>
        0 -1 70066 6.0280330944806337e-04</internalNodes>
      <leafValues>
        -1.2447991967201233e-01 2.0912358164787292e-01</leafValues></_>
    <_>
      <internalNodes>
        0 -1 37395 9.9753960967063904e-03</internalNodes>
      <leafValues>
        8.5164256393909454e-02 -3.3979400992393494e-01</leafValues></_>
    <_>
      <internalNodes>
        0 -1 56046 -4.4285161420702934e-03</internalNodes>
      <leafValues>
        -6.2206691503524780e-01 3.9740975946187973e-02</leafValues></_>
    <_>
      <internalNodes>
        0 -1 45127 6.4860628917813301e-03</internalNodes>
      <leafValues>
        -8.5152052342891693e-02 3.0075639486312866e-01</leafValues></_>
    <_>
      <internalNodes>
        0 -1 61473 7.9806316643953323e-03</internalNodes>
      <leafValues>
        4.5078270137310028e-02 -5.8730721473693848e-01</leafValues></_></weakClassifiers></stage3>
</opencv_storage>
