<?xml version="1.0"?>
<opencv_storage>
<stage2>
  <maxWeakCount>44</maxWeakCount>
  <stageThreshold>-5.6318718194961548e-01</stageThreshold>
  <weakClassifiers>
    <_>
      <internalNodes>
        0 -1 61282 1.5326379798352718e-03</internalNodes>
      <leafValues>
        1.5822130441665649e-01 5.3661465644836426e-01</leafValues></_>
    <_>
      <internalNodes>
        0 -1 60271 -1.8046310171484947e-02</internalNodes>
      <leafValues>
        -7.9518365859985352e-01 6.8271346390247345e-02</leafValues></_>
    <_>
      <internalNodes>
        0 -1 47299 -8.3008687943220139e-03</internalNodes>
      <leafValues>
        -6.7923915386199951e-01 4.8063155263662338e-02</leafValues></_>
    <_>
      <internalNodes>
        0 -1 64534 4.7573100891895592e-04</internalNodes>
      <leafValues>
        -1.5868680179119110e-01 2.0881009101867676e-01</leafValues></_>
    <_>
      <internalNodes>
        0 -1 14744 6.9715194404125214e-03</internalNodes>
      <leafValues>
        -1.0570557415485382e-01 2.9722580313682556e-01</leafValues></_>
    <_>
      <internalNodes>
        0 -1 61473 6.7460397258400917e-03</internalNodes>
      <leafValues>
        2.2951340302824974e-02 -5.9742838144302368e-01</leafValues></_>
    <_>
      <internalNodes>
        0 -1 45522 -5.1234997808933258e-03</internalNodes>
      <leafValues>
        1.9548287987709045e-01 -1.5710788965225220e-01</leafValues></_>
    <_>
      <internalNodes>
        0 -1 57496 -2.3083954583853483e-03</internalNodes>
      <leafValues>
        2.3567692935466766e-01 -1.2709179520606995e-01</leafValues></_>
    <_>
      <internalNodes>
        0 -1 48747 -4.9393472727388144e-04</internalNodes>
      <leafValues>
        2.3485866189002991e-01 -1.3315354287624359e-01</leafValues></_>
    <_>
      <internalNodes>
        0 -1 70146 -7.4937464669346809e-03</internalNodes>
      <leafValues>
        -7.5276857614517212e-01 3.9964608848094940e-02</leafValues></_>
    <_>
      <internalNodes>
        0 -1 56360 -1.3803704641759396e-03</internalNodes>
      <leafValues>
        2.0808543264865875e-01 -1.4256931841373444e-01</leafValues></_>
    <_>
      <internalNodes>
        0 -1 53319 -1.4669916592538357e-02</internalNodes>
      <leafValues>
        -4.0399855375289917e-01 7.9160720109939575e-02</leafValues></_>
    <_>
      <internalNodes>
        0 -1 53150 2.7529859915375710e-02</internalNodes>
      <leafValues>
        8.5579887032508850e-02 -4.5181471109390259e-01</leafValues></_>
    <_>
      <internalNodes>
        0 -1 11744 -5.7230275124311447e-03</internalNodes>
      <leafValues>
        3.2375755906105042e-01 -1.0756853967905045e-01</leafValues></_>
    <_>
      <internalNodes>
        0 -1 48264 1.9020838662981987e-02</internalNodes>
      <leafValues>
        -4.8346910625696182e-02 5.9101438522338867e-01</leafValues></_>
    <_>
      <internalNodes>
        0 -1 60589 3.2703489065170288e-02</internalNodes>
      <leafValues>
        4.8174161463975906e-02 -6.8702536821365356e-01</leafValues></_>
    <_>
      <internalNodes>
        0 -1 64766 2.5360640138387680e-03</internalNodes>
      <leafValues>
        -1.1476588994264603e-01 2.6105561852455139e-01</leafValues></_>
    <_>
      <internalNodes>
        0 -1 67958 -4.5375246554613113e-03</internalNodes>
      <leafValues>
        -6.6626155376434326e-01 4.3549671769142151e-02</leafValues></_>
    <_>
      <internalNodes>
        0 -1 64766 -1.2646985705941916e-03</internalNodes>
      <leafValues>
        2.1982079744338989e-01 -1.4336310327053070e-01</leafValues></_>
    <_>
      <internalNodes>
        0 -1 67639 -1.1706503573805094e-03</internalNodes>
      <leafValues>
        2.3620294034481049e-01 -1.3577447831630707e-01</leafValues></_>
    <_>
      <internalNodes>
        0 -1 56911 -6.5741827711462975e-04</internalNodes>
      <leafValues>
        2.0525255799293518e-01 -1.5067981183528900e-01</leafValues></_>
    <_>
      <internalNodes>
        0 -1 55431 3.6625430220738053e-04</internalNodes>
      <leafValues>
        -1.4274013042449951e-01 1.9529500603675842e-01</leafValues></_>
    <_>
      <internalNodes>
        0 -1 49857 -3.2615493983030319e-03</internalNodes>
      <leafValues>
        -4.4584020972251892e-01 6.7198455333709717e-02</leafValues></_>
    <_>
      <internalNodes>
        0 -1 62737 -4.8738357145339251e-04</internalNodes>
      <leafValues>
        1.7146840691566467e-01 -1.6815948486328125e-01</leafValues></_>
    <_>
      <internalNodes>
        0 -1 61255 1.1003641411662102e-02</internalNodes>
      <leafValues>
        4.9275841563940048e-02 -6.5134412050247192e-01</leafValues></_>
    <_>
      <internalNodes>
        0 -1 53701 1.4736629091203213e-03</internalNodes>
      <leafValues>
        -1.2532891333103180e-01 2.3067821562290192e-01</leafValues></_>
    <_>
      <internalNodes>
        0 -1 75557 -5.6411460041999817e-02</internalNodes>
      <leafValues>
        7.6311582326889038e-01 -3.0523175373673439e-02</leafValues></_>
    <_>
      <internalNodes>
        0 -1 73616 7.5312018394470215e-02</internalNodes>
      <leafValues>
        -2.4483911693096161e-02 8.7531220912933350e-01</leafValues></_>
    <_>
      <internalNodes>
        0 -1 48881 -2.0166924223303795e-03</internalNodes>
      <leafValues>
        1.8575251102447510e-01 -1.3314034044742584e-01</leafValues></_>
    <_>
      <internalNodes>
        0 -1 56463 -3.6723051220178604e-02</internalNodes>
      <leafValues>
        -9.2214095592498779e-01 2.6775814592838287e-02</leafValues></_>
    <_>
      <internalNodes>
        0 -1 26647 -3.2832827419042587e-03</internalNodes>
      <leafValues>
        2.1787744760513306e-01 -1.1881448328495026e-01</leafValues></_>
    <_>
      <internalNodes>
        0 -1 76398 -3.8674572715535760e-04</internalNodes>
      <leafValues>
        1.7819814383983612e-01 -1.4757263660430908e-01</leafValues></_>
    <_>
      <internalNodes>
        0 -1 77142 -6.6321482881903648e-03</internalNodes>
      <leafValues>
        -5.0961852073669434e-01 5.2364781498908997e-02</leafValues></_>
    <_>
      <internalNodes>
        0 -1 78408 1.2191113084554672e-02</internalNodes>
      <leafValues>
        -6.2302805483341217e-02 4.5292994379997253e-01</leafValues></_>
    <_>
      <internalNodes>
        0 -1 35875 2.7930976822972298e-02</internalNodes>
      <leafValues>
        -2.7506183832883835e-02 8.0218207836151123e-01</leafValues></_>
    <_>
      <internalNodes>
        0 -1 78455 -1.4985559973865747e-03</internalNodes>
      <leafValues>
        -2.7509847283363342e-01 1.0104376077651978e-01</leafValues></_>
    <_>
      <internalNodes>
        0 -1 41769 -2.3887595161795616e-02</internalNodes>
      <leafValues>
        -7.8234875202178955e-01 2.9846377670764923e-02</leafValues></_>
    <_>
      <internalNodes>
        0 -1 6895 -2.3410530760884285e-02</internalNodes>
      <leafValues>
        -4.8294937610626221e-01 4.9301166087388992e-02</leafValues></_>
    <_>
      <internalNodes>
        0 -1 67843 -1.0714747477322817e-03</internalNodes>
      <leafValues>
        1.5546977519989014e-01 -1.7436601221561432e-01</leafValues></_>
    <_>
      <internalNodes>
        0 -1 73614 4.5242090709507465e-03</internalNodes>
      <leafValues>
        1.6444158554077148e-01 -1.9999860227108002e-01</leafValues></_>
    <_>
      <internalNodes>
        0 -1 52648 6.9228053325787187e-04</internalNodes>
      <leafValues>
        -1.1395180225372314e-01 2.6301428675651550e-01</leafValues></_>
    <_>
      <internalNodes>
        0 -1 7302 -8.1447875127196312e-03</internalNodes>
      <leafValues>
        -8.0891215801239014e-01 3.3849485218524933e-02</leafValues></_>
    <_>
      <internalNodes>
        0 -1 14433 6.0795538127422333e-02</internalNodes>
      <leafValues>
        2.8825685381889343e-02 -7.4819964170455933e-01</leafValues></_>
    <_>
      <internalNodes>
        0 -1 58155 -6.6463993862271309e-03</internalNodes>
      <leafValues>
        2.8884798288345337e-01 -1.0312032699584961e-01</leafValues></_></weakClassifiers></stage2>
</opencv_storage>
